{
  "layers": [
    {
      "activation": 2,
      "biases": [
        0.3790511860297186,
        -0.743956317983997,
        0.0,
        -1.37150773325223,
        -0.05828262267528243,
        0.0,
        -1.4849692837493829,
        -0.024290885808068482,
        0.0,
        0.13410826130177148
      ],
      "cols": 10,
      "rows": 8,
      "weights": [
        [
          -0.6990007551815017,
          0.7194921607349825,
          -0.527348265520617,
          -1.4888568845201575,
          -0.4846196413890462,
          -0.5609176891463473,
          0.7388712967685903,
          2.4136285793212795,
          -0.44430629570981023,
          -0.7259327500420363
        ],
        [
          -0.4465467362875683,
          -0.08154159088528233,
          0.3390339941253797,
          0.9454324863201905,
          -0.1227228385251172,
          -0.3684061544517773,
          0.21253050228187598,
          -1.016371601342953,
          -0.007530296161770093,
          0.49735176533344305
        ],
        [
          -1.644204104601829,
          -1.8798692836715765,
          -0.30281763634845243,
          2.453511432154527,
          0.04189186164604023,
          -0.2979510814749808,
          1.1440510081309911,
          1.2478141813801307,
          0.45537163084804194,
          -1.1996996894171932
        ],
        [
          3.283608199287545,
          -1.6162628445250968,
          0.4639590673010075,
          2.92155545353569,
          -0.15973933904454637,
          0.27240860081241264,
          0.7621332773981314,
          -3.4119386239214413,
          0.07583128536257622,
          1.860642891075529
        ],
        [
          0.2763437878815209,
          1.6517760797589613,
          0.06730845294754101,
          0.15238115203798364,
          3.2825250007838974e-05,
          -0.016280819512874425,
          1.4218982222911491,
          1.7418966597381393,
          -0.29298128187595085,
          -0.3253083202986338
        ],
        [
          0.584417690203817,
          2.7110823651834175,
          -0.35335892234372346,
          -1.5393535414446122,
          0.3100201363394641,
          0.03229404300205518,
          1.323706898818048,
          0.5744334634214033,
          -0.49330883997770947,
          1.4566962346764183
        ],
        [
          -0.3251302991444003,
          0.7497770220709551,
          -0.27853894646914834,
          2.140174691640051,
          0.1960007698839639,
          0.05672769729327699,
          0.20717916611271148,
          -0.01400996713067812,
          -0.2918079423378625,
          -0.9583441560233578
        ],
        [
          -2.076954568837679,
          0.4799566120313075,
          -0.24809071749055983,
          0.1517477541343967,
          -0.45860410216487624,
          -0.36023629315499794,
          -1.7143296384070388,
          0.9241750834970283,
          -0.40290037577454335,
          -2.9312807641528917
        ]
      ]
    },
    {
      "activation": 0,
      "biases": [
        -0.9058552839390835,
        1.1355709841504835,
        1.0682232182252338,
        -0.05513719449484977,
        1.5852812610469869,
        0.40920258866226844,
        -2.505883237472363
      ],
      "cols": 7,
      "rows": 10,
      "weights": [
        [
          0.7809513797179252,
          2.7187260770687396,
          -0.576975787521839,
          -1.5646101431612114,
          -2.4044839035748007,
          0.8852436168480118,
          1.1325980502442465
        ],
        [
          1.0682614344941377,
          -2.5431712660417563,
          2.2912445883507266,
          -0.8772154504503151,
          1.4219891842514718,
          -1.556615506647335,
          -0.2639977655302032
        ],
        [
          0.4780790771456975,
          0.02255835546628034,
          0.3210066007709981,
          0.4094610029068177,
          0.249615361590879,
          -0.23936025323919985,
          0.17860207016184088
        ],
        [
          -3.324459340415754,
          -1.5867420595238946,
          -1.9625670828430752,
          1.1128027943064387,
          1.145776938390007,
          -0.7807137979633589,
          2.447513413863644
        ],
        [
          -0.15496338026076956,
          0.1778635196068027,
          -0.15481815466575952,
          0.3265031916663018,
          -0.44487437632201116,
          -0.12921588322118466,
          0.05921191303259556
        ],
        [
          -0.3287276863448477,
          0.5705634568529414,
          0.37344997205474245,
          -0.16403960101807397,
          0.25527929229629603,
          0.3721494823121569,
          -0.5021787694751164
        ],
        [
          2.7520473539209855,
          -0.2874054519452334,
          0.29296356837171417,
          -0.5259921652717445,
          0.31064056239001475,
          1.4740357398701494,
          -0.9091022713041167
        ],
        [
          -1.153170364084546,
          2.0061196771371934,
          -2.6559954670817834,
          1.4426547165814814,
          -2.4613277230653554,
          0.5897773182239987,
          1.8523318979988659
        ],
        [
          -0.40001525040910046,
          -0.36954963098133115,
          0.1817965827692455,
          -0.5720805395042289,
          -0.1822675233037023,
          -0.3168651317833454,
          0.29302705783802047
        ],
        [
          -1.5545301052992122,
          -3.2725130024515052,
          -0.10709561873364085,
          1.277216692493544,
          0.30382338319766683,
          -1.3224664444224146,
          0.7171916760519607
        ]
      ]
    }
  ]
}
